Language model created by QuickLM on Tue Jul 26 16:26:55 EDT 2016
Copyright (c) 1996-2010 Carnegie Mellon University and Alexander I. Rudnicky

The model is in standard ARPA format, designed by Doug Paul while he was at MITRE.

The code that was used to produce this language model is available in Open Source.
Please visit http://www.speech.cs.cmu.edu/tools/ for more information

The (fixed) discount mass is 0.5. The backoffs are computed using the ratio method.
This model based on a corpus of 11 sentences and 14 words

\data\
ngram 1=14
ngram 2=23
ngram 3=14

\1-grams:
-0.8159 </s> -0.3010
-0.8159 <s> -0.2290
-1.8573 BEGIN -0.2290
-1.8573 CALIBRATION -0.2290
-1.8573 HELP -0.2290
-1.8573 HOME -0.2290
-1.8573 ONE -0.2290
-1.8573 REPEAT -0.2290
-1.8573 SKIP -0.2290
-1.8573 STOP -0.2290
-1.8573 TAG -0.2290
-1.3802 TASK -0.2825
-1.8573 THREE -0.2290
-1.8573 TWO -0.2290

\2-grams:
-1.3424 <s> BEGIN 0.0000
-1.3424 <s> CALIBRATION 0.0000
-1.3424 <s> HELP 0.0000
-1.3424 <s> HOME 0.0000
-1.3424 <s> REPEAT 0.0000
-1.3424 <s> SKIP 0.0000
-1.3424 <s> STOP 0.0000
-1.3424 <s> TAG 0.0000
-0.8653 <s> TASK 0.0000
-0.3010 BEGIN </s> -0.3010
-0.3010 CALIBRATION </s> -0.3010
-0.3010 HELP </s> -0.3010
-0.3010 HOME </s> -0.3010
-0.3010 ONE </s> -0.3010
-0.3010 REPEAT </s> -0.3010
-0.3010 SKIP </s> -0.3010
-0.3010 STOP </s> -0.3010
-0.3010 TAG </s> -0.3010
-0.7782 TASK ONE 0.0000
-0.7782 TASK THREE 0.0000
-0.7782 TASK TWO 0.0000
-0.3010 THREE </s> -0.3010
-0.3010 TWO </s> -0.3010

\3-grams:
-0.3010 <s> BEGIN </s>
-0.3010 <s> CALIBRATION </s>
-0.3010 <s> HELP </s>
-0.3010 <s> HOME </s>
-0.3010 <s> REPEAT </s>
-0.3010 <s> SKIP </s>
-0.3010 <s> STOP </s>
-0.3010 <s> TAG </s>
-0.7782 <s> TASK ONE
-0.7782 <s> TASK THREE
-0.7782 <s> TASK TWO
-0.3010 TASK ONE </s>
-0.3010 TASK THREE </s>
-0.3010 TASK TWO </s>

\end\
